<?xml version="1.0"?>
<opencv_storage>
<cascade>
  <stageType>BOOST</stageType>
  <featureType>HAAR</featureType>
  <height>20</height>
  <width>20</width>
  <stageParams>
    <boostType>GAB</boostType>
    <minHitRate>9.9900001287460327e-01</minHitRate>
    <maxFalseAlarm>5.0000000745058060e-02</maxFalseAlarm>
    <weightTrimRate>9.4999999999999996e-01</weightTrimRate>
    <maxDepth>1</maxDepth>
    <maxWeakCount>100</maxWeakCount></stageParams>
  <featureParams>
    <maxCatCount>0</maxCatCount>
    <featSize>1</featSize>
    <mode>ALL</mode></featureParams>
  <stageNum>3</stageNum>
  <stages>
    <!-- stage 0 -->
    <_>
      <maxWeakCount>1</maxWeakCount>
      <stageThreshold>1.</stageThreshold>
      <weakClassifiers>
        <_>
          <internalNodes>
            0 -1 3 2.2614127397537231e-01</internalNodes>
          <leafValues>
            -1. 1.</leafValues></_></weakClassifiers></_>
    <!-- stage 1 -->
    <_>
      <maxWeakCount>4</maxWeakCount>
      <stageThreshold>-2.1771225333213806e-01</stageThreshold>
      <weakClassifiers>
        <_>
          <internalNodes>
            0 -1 0 -7.4378937482833862e-02</internalNodes>
          <leafValues>
            9.3009710311889648e-01 -9.8762887716293335e-01</leafValues></_>
        <_>
          <internalNodes>
            0 -1 2 -1.5755754709243774e-01</internalNodes>
          <leafValues>
            8.3682769536972046e-01 -9.7370201349258423e-01</leafValues></_>
        <_>
          <internalNodes>
            0 -1 1 -4.0649954229593277e-02</internalNodes>
          <leafValues>
            8.6996066570281982e-01 -9.1180586814880371e-01</leafValues></_>
        <_>
          <internalNodes>
            0 -1 7 2.5663930922746658e-02</internalNodes>
          <leafValues>
            -9.2888838052749634e-01 8.4489482641220093e-01</leafValues></_></weakClassifiers></_>
    <!-- stage 2 -->
    <_>
      <maxWeakCount>3</maxWeakCount>
      <stageThreshold>4.9711117148399353e-01</stageThreshold>
      <weakClassifiers>
        <_>
          <internalNodes>
            0 -1 5 2.0928980410099030e-01</internalNodes>
          <leafValues>
            -9.1967868804931641e-01 9.1235059499740601e-01</leafValues></_>
        <_>
          <internalNodes>
            0 -1 4 -1.3944581151008606e-01</internalNodes>
          <leafValues>
            7.0903587341308594e-01 -9.8826867341995239e-01</leafValues></_>
        <_>
          <internalNodes>
            0 -1 6 2.0667823031544685e-02</internalNodes>
          <leafValues>
            -9.4752591848373413e-01 7.0775395631790161e-01</leafValues></_></weakClassifiers></_></stages>
  <features>
    <_>
      <rects>
        <_>
          0 2 20 5 -1.</_>
        <_>
          5 2 10 5 2.</_></rects>
      <tilted>0</tilted></_>
    <_>
      <rects>
        <_>
          0 3 20 2 -1.</_>
        <_>
          5 3 10 2 2.</_></rects>
      <tilted>0</tilted></_>
    <_>
      <rects>
        <_>
          1 1 18 18 -1.</_>
        <_>
          7 1 6 18 3.</_></rects>
      <tilted>0</tilted></_>
    <_>
      <rects>
        <_>
          3 6 11 9 -1.</_>
        <_>
          3 9 11 3 3.</_></rects>
      <tilted>0</tilted></_>
    <_>
      <rects>
        <_>
          4 7 12 8 -1.</_>
        <_>
          4 11 12 4 2.</_></rects>
      <tilted>0</tilted></_>
    <_>
      <rects>
        <_>
          5 6 12 8 -1.</_>
        <_>
          5 8 12 4 2.</_></rects>
      <tilted>0</tilted></_>
    <_>
      <rects>
        <_>
          12 14 6 5 -1.</_>
        <_>
          15 14 3 5 2.</_></rects>
      <tilted>0</tilted></_>
    <_>
      <rects>
        <_>
          14 9 6 6 -1.</_>
        <_>
          14 9 3 3 2.</_>
        <_>
          17 12 3 3 2.</_></rects>
      <tilted>0</tilted></_></features></cascade>
</opencv_storage>
