<?xml version="1.0"?>
<opencv_storage>
<cascade>
  <stageType>BOOST</stageType>
  <featureType>HAAR</featureType>
  <height>20</height>
  <width>20</width>
  <stageParams>
    <boostType>GAB</boostType>
    <minHitRate>9.9900001287460327e-01</minHitRate>
    <maxFalseAlarm>5.0000000745058060e-02</maxFalseAlarm>
    <weightTrimRate>9.4999999999999996e-01</weightTrimRate>
    <maxDepth>1</maxDepth>
    <maxWeakCount>100</maxWeakCount></stageParams>
  <featureParams>
    <maxCatCount>0</maxCatCount>
    <featSize>1</featSize>
    <mode>ALL</mode></featureParams>
  <stageNum>3</stageNum>
  <stages>
    <!-- stage 0 -->
    <_>
      <maxWeakCount>6</maxWeakCount>
      <stageThreshold>-1.0996453762054443e+00</stageThreshold>
      <weakClassifiers>
        <_>
          <internalNodes>
            0 -1 8 1.3973565772175789e-02</internalNodes>
          <leafValues>
            -6.7088609933853149e-01 8.2997763156890869e-01</leafValues></_>
        <_>
          <internalNodes>
            0 -1 3 3.9032376371324062e-03</internalNodes>
          <leafValues>
            -6.1202907562255859e-01 9.2987138032913208e-01</leafValues></_>
        <_>
          <internalNodes>
            0 -1 0 1.7185857519507408e-02</internalNodes>
          <leafValues>
            -8.9442008733749390e-01 6.0627180337905884e-01</leafValues></_>
        <_>
          <internalNodes>
            0 -1 10 -6.5118335187435150e-03</internalNodes>
          <leafValues>
            9.9536722898483276e-01 -5.1190376281738281e-01</leafValues></_>
        <_>
          <internalNodes>
            0 -1 7 -1.8161870539188385e-02</internalNodes>
          <leafValues>
            9.9306166172027588e-01 -5.2215117216110229e-01</leafValues></_>
        <_>
          <internalNodes>
            0 -1 6 1.1284518986940384e-03</internalNodes>
          <leafValues>
            -1. 6.0447382926940918e-01</leafValues></_></weakClassifiers></_>
    <!-- stage 1 -->
    <_>
      <maxWeakCount>6</maxWeakCount>
      <stageThreshold>-1.0108431577682495e+00</stageThreshold>
      <weakClassifiers>
        <_>
          <internalNodes>
            0 -1 9 2.2904337383806705e-03</internalNodes>
          <leafValues>
            -6.5942031145095825e-01 8.1250000000000000e-01</leafValues></_>
        <_>
          <internalNodes>
            0 -1 5 4.7739278525114059e-03</internalNodes>
          <leafValues>
            -5.9884870052337646e-01 9.0455043315887451e-01</leafValues></_>
        <_>
          <internalNodes>
            0 -1 1 3.4110575914382935e-02</internalNodes>
          <leafValues>
            5.4280149936676025e-01 -9.1355204582214355e-01</leafValues></_>
        <_>
          <internalNodes>
            0 -1 4 -6.3069220632314682e-03</internalNodes>
          <leafValues>
            9.4112163782119751e-01 -4.8204100131988525e-01</leafValues></_>
        <_>
          <internalNodes>
            0 -1 16 1.2975300662219524e-02</internalNodes>
          <leafValues>
            -4.6128869056701660e-01 9.5754677057266235e-01</leafValues></_>
        <_>
          <internalNodes>
            0 -1 14 -6.4943237230181694e-03</internalNodes>
          <leafValues>
            6.0090839862823486e-01 -9.5272248983383179e-01</leafValues></_></weakClassifiers></_>
    <!-- stage 2 -->
    <_>
      <maxWeakCount>6</maxWeakCount>
      <stageThreshold>-1.1750409007072449e-01</stageThreshold>
      <weakClassifiers>
        <_>
          <internalNodes>
            0 -1 12 -6.0880728997290134e-03</internalNodes>
          <leafValues>
            9.3785309791564941e-01 -5.1393187046051025e-01</leafValues></_>
        <_>
          <internalNodes>
            0 -1 17 -3.6558540159603581e-05</internalNodes>
          <leafValues>
            -1. 5.1766186952590942e-01</leafValues></_>
        <_>
          <internalNodes>
            0 -1 13 -6.4407968893647194e-03</internalNodes>
          <leafValues>
            8.6399668455123901e-01 -5.6258648633956909e-01</leafValues></_>
        <_>
          <internalNodes>
            0 -1 15 -2.2017244249582291e-02</internalNodes>
          <leafValues>
            -9.7941666841506958e-01 4.6331796050071716e-01</leafValues></_>
        <_>
          <internalNodes>
            0 -1 2 -5.7223498821258545e-02</internalNodes>
          <leafValues>
            9.9450290203094482e-01 -4.9353948235511780e-01</leafValues></_>
        <_>
          <internalNodes>
            0 -1 11 3.9676420390605927e-02</internalNodes>
          <leafValues>
            5.2364045381546021e-01 -9.5500922203063965e-01</leafValues></_></weakClassifiers></_></stages>
  <features>
    <_>
      <rects>
        <_>
          0 15 20 5 -1.</_>
        <_>
          5 15 10 5 2.</_></rects>
      <tilted>0</tilted></_>
    <_>
      <rects>
        <_>
          3 1 14 16 -1.</_>
        <_>
          10 1 7 16 2.</_></rects>
      <tilted>0</tilted></_>
    <_>
      <rects>
        <_>
          6 2 13 3 -1.</_>
        <_>
          5 3 13 1 3.</_></rects>
      <tilted>1</tilted></_>
    <_>
      <rects>
        <_>
          6 8 3 1 -1.</_>
        <_>
          7 8 1 1 3.</_></rects>
      <tilted>0</tilted></_>
    <_>
      <rects>
        <_>
          6 10 1 3 -1.</_>
        <_>
          6 11 1 1 3.</_></rects>
      <tilted>0</tilted></_>
    <_>
      <rects>
        <_>
          7 6 3 1 -1.</_>
        <_>
          8 6 1 1 3.</_></rects>
      <tilted>0</tilted></_>
    <_>
      <rects>
        <_>
          8 0 12 20 -1.</_>
        <_>
          11 0 6 20 2.</_></rects>
      <tilted>0</tilted></_>
    <_>
      <rects>
        <_>
          8 6 2 12 -1.</_>
        <_>
          8 6 1 6 2.</_>
        <_>
          9 12 1 6 2.</_></rects>
      <tilted>0</tilted></_>
    <_>
      <rects>
        <_>
          9 7 3 3 -1.</_>
        <_>
          10 8 1 1 9.</_></rects>
      <tilted>0</tilted></_>
    <_>
      <rects>
        <_>
          9 10 1 2 -1.</_>
        <_>
          9 11 1 1 2.</_></rects>
      <tilted>0</tilted></_>
    <_>
      <rects>
        <_>
          9 13 3 1 -1.</_>
        <_>
          10 13 1 1 3.</_></rects>
      <tilted>0</tilted></_>
    <_>
      <rects>
        <_>
          11 3 6 10 -1.</_>
        <_>
          11 3 6 5 2.</_></rects>
      <tilted>1</tilted></_>
    <_>
      <rects>
        <_>
          11 6 3 1 -1.</_>
        <_>
          12 6 1 1 3.</_></rects>
      <tilted>0</tilted></_>
    <_>
      <rects>
        <_>
          11 13 3 1 -1.</_>
        <_>
          12 13 1 1 3.</_></rects>
      <tilted>0</tilted></_>
    <_>
      <rects>
        <_>
          12 14 8 6 -1.</_>
        <_>
          12 17 8 3 2.</_></rects>
      <tilted>0</tilted></_>
    <_>
      <rects>
        <_>
          13 2 5 8 -1.</_>
        <_>
          13 2 5 4 2.</_></rects>
      <tilted>1</tilted></_>
    <_>
      <rects>
        <_>
          13 9 2 3 -1.</_>
        <_>
          13 10 2 1 3.</_></rects>
      <tilted>0</tilted></_>
    <_>
      <rects>
        <_>
          18 0 2 4 -1.</_>
        <_>
          18 2 2 2 2.</_></rects>
      <tilted>0</tilted></_></features></cascade>
</opencv_storage>
