<?xml version="1.0"?>
<opencv_storage>
<stage0>
  <maxWeakCount>6</maxWeakCount>
  <stageThreshold>-1.0996453762054443e+00</stageThreshold>
  <weakClassifiers>
    <_>
      <internalNodes>
        0 -1 84176 1.3973565772175789e-02</internalNodes>
      <leafValues>
        -6.7088609933853149e-01 8.2997763156890869e-01</leafValues></_>
    <_>
      <internalNodes>
        0 -1 61276 3.9032376371324062e-03</internalNodes>
      <leafValues>
        -6.1202907562255859e-01 9.2987138032913208e-01</leafValues></_>
    <_>
      <internalNodes>
        0 -1 9444 1.7185857519507408e-02</internalNodes>
      <leafValues>
        -8.9442008733749390e-01 6.0627180337905884e-01</leafValues></_>
    <_>
      <internalNodes>
        0 -1 86239 -6.5118335187435150e-03</internalNodes>
      <leafValues>
        9.9536722898483276e-01 -5.1190376281738281e-01</leafValues></_>
    <_>
      <internalNodes>
        0 -1 76353 -1.8161870539188385e-02</internalNodes>
      <leafValues>
        9.9306166172027588e-01 -5.2215117216110229e-01</leafValues></_>
    <_>
      <internalNodes>
        0 -1 72477 1.1284518986940384e-03</internalNodes>
      <leafValues>
        -1. 6.0447382926940918e-01</leafValues></_></weakClassifiers></stage0>
</opencv_storage>
